FANN_FLO_2.1
num_layers=3
learning_rate=0.700000
connection_rate=1.000000
network_type=0
learning_momentum=0.000000
training_algorithm=2
train_error_function=1
train_stop_function=0
cascade_output_change_fraction=0.010000
quickprop_decay=-0.000100
quickprop_mu=1.750000
rprop_increase_factor=1.200000
rprop_decrease_factor=0.500000
rprop_delta_min=0.000000
rprop_delta_max=50.000000
rprop_delta_zero=0.100000
cascade_output_stagnation_epochs=12
cascade_candidate_change_fraction=0.010000
cascade_candidate_stagnation_epochs=12
cascade_max_out_epochs=150
cascade_min_out_epochs=50
cascade_max_cand_epochs=150
cascade_min_cand_epochs=50
cascade_num_candidate_groups=2
bit_fail_limit=3.49999994039535522461e-01
cascade_candidate_limit=1.00000000000000000000e+03
cascade_weight_multiplier=4.00000005960464477539e-01
cascade_activation_functions_count=10
cascade_activation_functions=3 5 7 8 10 11 14 15 16 17 
cascade_activation_steepnesses_count=4
cascade_activation_steepnesses=2.50000000000000000000e-01 5.00000000000000000000e-01 7.50000000000000000000e-01 1.00000000000000000000e+00 
layer_sizes=8 8 3 
scale_included=0
neurons (num_inputs, activation_function, activation_steepness)=(0, 0, 0.00000000000000000000e+00) (0, 0, 0.00000000000000000000e+00) (0, 0, 0.00000000000000000000e+00) (0, 0, 0.00000000000000000000e+00) (0, 0, 0.00000000000000000000e+00) (0, 0, 0.00000000000000000000e+00) (0, 0, 0.00000000000000000000e+00) (0, 0, 0.00000000000000000000e+00) (8, 4, 5.00000000000000000000e-01) (8, 4, 5.00000000000000000000e-01) (8, 4, 5.00000000000000000000e-01) (8, 4, 5.00000000000000000000e-01) (8, 4, 5.00000000000000000000e-01) (8, 4, 5.00000000000000000000e-01) (8, 4, 5.00000000000000000000e-01) (0, 0, 0.00000000000000000000e+00) (8, 4, 5.00000000000000000000e-01) (8, 4, 5.00000000000000000000e-01) (0, 0, 0.00000000000000000000e+00) 
connections (connected_to_neuron, weight)=(0, 6.53425598144531250000e+01) (1, -8.10981845855712890625e+00) (2, -4.61674034595489501953e-01) (3, 1.20414505004882812500e+01) (4, 4.62326020002365112305e-01) (5, -1.09762125015258789062e+01) (6, -7.89117813110351562500e-01) (7, 3.07106590270996093750e+00) (0, -1.81145763397216796875e+00) (1, 1.69750976562500000000e+00) (2, 4.08899486064910888672e-01) (3, 7.75504469871520996094e-01) (4, -6.33968114852905273438e-01) (5, -5.11060714721679687500e+00) (6, -3.68435651063919067383e-01) (7, 2.61409354209899902344e+00) (0, 1.07123999023437500000e+03) (1, -1.05542201995849609375e+01) (2, -1.57770195007324218750e+01) (3, 3.73387870788574218750e+01) (4, -4.20175641775131225586e-01) (5, 9.14332389831542968750e+00) (6, -3.74310582876205444336e-01) (7, -3.10868334770202636719e+00) (0, 1.01845422363281250000e+03) (1, -1.46117263793945312500e+02) (2, 8.11682495117187500000e+02) (3, 1.50000000000000000000e+03) (4, -2.38676406860351562500e+02) (5, -1.30328735351562500000e+03) (6, -1.49850265502929687500e+02) (7, 1.59907436370849609375e+00) (0, 9.85894107818603515625e+00) (1, -7.28690052032470703125e+00) (2, 3.69556879997253417969e+00) (3, 4.94260559082031250000e+01) (4, 2.88407981395721435547e-01) (5, 6.14970397949218750000e+00) (6, 5.44361174106597900391e-01) (7, -7.01544332504272460938e+00) (0, 1.16189843750000000000e+03) (1, -1.78745198249816894531e+00) (2, 7.98989318847656250000e+02) (3, -2.57138549804687500000e+02) (4, -7.17901184082031250000e+02) (5, -1.30850036621093750000e+03) (6, -1.51591766357421875000e+02) (7, 1.22314131259918212891e+00) (0, 2.36469543457031250000e+02) (1, 9.35587048530578613281e-01) (2, -3.91803466796875000000e+02) (3, 2.45569747924804687500e+02) (4, -6.36624470353126525879e-02) (5, -1.43794689178466796875e+01) (6, 4.55136448144912719727e-02) (7, 2.67924475669860839844e+00) (8, -1.42367458343505859375e+01) (9, -4.29859962463378906250e+01) (10, 1.00814943313598632812e+01) (11, 1.50000000000000000000e+03) (12, 8.73624992370605468750e+00) (13, 1.50000000000000000000e+03) (14, 7.32954788208007812500e+00) (15, -6.53234839439392089844e-01) (8, 1.22539129257202148438e+01) (9, 4.26300811767578125000e+01) (10, -8.35848236083984375000e+00) (11, -1.00000000000000000000e+02) (12, -6.50074243545532226562e+00) (13, 1.50000000000000000000e+03) (14, -6.87572860717773437500e+00) (15, -1.43712353706359863281e+00) 
