FANN_FLO_2.1
num_layers=3
learning_rate=0.700000
connection_rate=1.000000
network_type=0
learning_momentum=0.000000
training_algorithm=2
train_error_function=1
train_stop_function=0
cascade_output_change_fraction=0.010000
quickprop_decay=-0.000100
quickprop_mu=1.750000
rprop_increase_factor=1.200000
rprop_decrease_factor=0.500000
rprop_delta_min=0.000000
rprop_delta_max=50.000000
rprop_delta_zero=0.100000
cascade_output_stagnation_epochs=12
cascade_candidate_change_fraction=0.010000
cascade_candidate_stagnation_epochs=12
cascade_max_out_epochs=150
cascade_min_out_epochs=50
cascade_max_cand_epochs=150
cascade_min_cand_epochs=50
cascade_num_candidate_groups=2
bit_fail_limit=3.49999994039535522461e-01
cascade_candidate_limit=1.00000000000000000000e+03
cascade_weight_multiplier=4.00000005960464477539e-01
cascade_activation_functions_count=10
cascade_activation_functions=3 5 7 8 10 11 14 15 16 17 
cascade_activation_steepnesses_count=4
cascade_activation_steepnesses=2.50000000000000000000e-01 5.00000000000000000000e-01 7.50000000000000000000e-01 1.00000000000000000000e+00 
layer_sizes=8 8 3 
scale_included=0
neurons (num_inputs, activation_function, activation_steepness)=(0, 0, 0.00000000000000000000e+00) (0, 0, 0.00000000000000000000e+00) (0, 0, 0.00000000000000000000e+00) (0, 0, 0.00000000000000000000e+00) (0, 0, 0.00000000000000000000e+00) (0, 0, 0.00000000000000000000e+00) (0, 0, 0.00000000000000000000e+00) (0, 0, 0.00000000000000000000e+00) (8, 4, 5.00000000000000000000e-01) (8, 4, 5.00000000000000000000e-01) (8, 4, 5.00000000000000000000e-01) (8, 4, 5.00000000000000000000e-01) (8, 4, 5.00000000000000000000e-01) (8, 4, 5.00000000000000000000e-01) (8, 4, 5.00000000000000000000e-01) (0, 0, 0.00000000000000000000e+00) (8, 4, 5.00000000000000000000e-01) (8, 4, 5.00000000000000000000e-01) (0, 0, 0.00000000000000000000e+00) 
connections (connected_to_neuron, weight)=(0, -9.27830791473388671875e+00) (1, 3.40891742706298828125e+00) (2, 9.50684487819671630859e-01) (3, -3.60947895050048828125e+00) (4, -2.58566409349441528320e-01) (5, -2.18593454360961914062e+00) (6, -7.26021468639373779297e-01) (7, 7.64595031738281250000e-01) (0, -1.09278564453125000000e+01) (1, -7.96028947830200195312e+00) (2, 6.62684583663940429688e+00) (3, 9.04144287109375000000e+00) (4, 1.46173143386840820312e+00) (5, 1.75110745429992675781e+00) (6, 3.42153877019882202148e-01) (7, -6.25513717532157897949e-02) (0, -1.16169452667236328125e+01) (1, -5.59496688842773437500e+00) (2, -2.24982986450195312500e+01) (3, 1.05512075424194335938e+01) (4, 1.48788845539093017578e+00) (5, 1.31433224678039550781e+00) (6, -1.17238573729991912842e-02) (7, -1.64643451571464538574e-01) (0, -2.73857951164245605469e+00) (1, 1.60206973552703857422e+00) (2, 3.60031795501708984375e+00) (3, 3.40595722198486328125e+00) (4, -4.26853746175765991211e-01) (5, -7.10849046707153320312e+00) (6, 3.79357069730758666992e-01) (7, 1.88714957237243652344e+00) (0, 7.82405776977539062500e+01) (1, -5.65621089935302734375e+00) (2, 5.36939859390258789062e-01) (3, 1.00726737976074218750e+01) (4, 5.36065995693206787109e-01) (5, 1.46618402004241943359e+00) (6, 5.35983629524707794189e-02) (7, -9.27468895912170410156e-01) (0, -2.83212356567382812500e+01) (1, 1.30908548831939697266e+00) (2, 3.93533182144165039062e+00) (3, 1.36109423637390136719e+00) (4, -7.78576493263244628906e-01) (5, -5.73809337615966796875e+00) (6, 1.06622004508972167969e+00) (7, 1.95363283157348632812e+00) (0, -2.39102535247802734375e+01) (1, 4.97899103164672851562e+00) (2, -5.09047508239746093750e+00) (3, -6.24392366409301757812e+00) (4, -4.53312218189239501953e-01) (5, -1.72522866725921630859e+00) (6, 1.06232680380344390869e-01) (7, 1.27354240417480468750e+00) (8, -6.50786161422729492188e-01) (9, 8.25318145751953125000e+00) (10, 3.96783027648925781250e+01) (11, -2.01677265167236328125e+01) (12, 1.77088522911071777344e+00) (13, -5.93169355392456054688e+00) (14, -1.27758874893188476562e+01) (15, 2.42071881890296936035e-01) (8, 7.58681058883666992188e+00) (9, -8.29573917388916015625e+00) (10, -3.74897956848144531250e+01) (11, 2.14927310943603515625e+01) (12, -3.71360683441162109375e+00) (13, 4.25596714019775390625e+00) (14, 8.11497974395751953125e+00) (15, 6.69896304607391357422e-02) 
